{
  "model_type": "tensorflow_sequential",
  "layers": [
    {
      "type": "dense",
      "units": 64,
      "activation": "relu",
      "input_shape": [
        5
      ]
    },
    {
      "type": "dropout",
      "rate": 0.2
    },
    {
      "type": "dense",
      "units": 32,
      "activation": "relu"
    },
    {
      "type": "dropout",
      "rate": 0.2
    },
    {
      "type": "dense",
      "units": 1,
      "activation": "sigmoid"
    }
  ],
  "weights": [
    [
      [
        -1.8755666394203365,
        0.08574803351271837,
        0.18472563322174002,
        -0.08003017812024274,
        0.3696647365847559,
        -0.8878407200508258,
        0.251835882736046,
        0.14981689286595884,
        -0.24677753488099333,
        1.3759033339322315,
        1.4470715459776122,
        1.114135889694412,
        0.09134161227835239,
        0.6670095675970681,
        -1.818300667496457,
        -1.319016648696875,
        0.37012521816843835,
        -0.20850309854860063,
        0.9150001361619139,
        0.5413409837542323,
        -0.13805676275327977,
        0.7162520004847955,
        0.9331533687781034,
        1.7495149842643074,
        0.4705066579303893,
        -0.0824394747551268,
        -0.5953228197022224,
        0.9157415980732831,
        0.6077150478274699,
        1.0262615074541923,
        -0.6457790239335034,
        -0.361364129162732,
        -0.6740427424773228,
        -0.0733982341996579,
        -0.021634007907752103,
        1.041585026836234,
        1.1542477601627816,
        0.34300131158883485,
        0.9245343399082593,
        -0.2091583771366928,
        -0.060397634275122805,
        0.7663950445884427,
        1.1085886614413614,
        0.2786362305403132,
        -0.7628321066140753,
        0.2441817103466388,
        0.2364486621086756,
        -0.4113270967850156,
        -0.17967016775822695,
        0.22186307193337143,
        -0.5897650646968012,
        -0.6245724251934629,
        -1.5468090130086238,
        1.590306470710226,
        1.5760395126249414,
        0.24973961830091643,
        -0.36500892456914336,
        0.35729558151304897,
        0.28838422257472895,
        0.4856998331707553,
        0.9724579760636317,
        0.2613193901205455,
        0.9150012713427358,
        -0.7272036560272901
      ],
      [
        0.6759031644318643,
        0.24798681283961005,
        0.6167970710265237,
        1.7541635127342963,
        1.2708105518604171,
        2.5564020539755345,
        1.436341544508793,
        -0.010743791403737398,
        -1.5989645752892183,
        -0.15806116801498782,
        0.5592558730645212,
        -1.0178714729277314,
        -2.2488742657133973,
        -0.15614834852868792,
        0.4368288716364316,
        1.010721796238681,
        0.3476304850928102,
        0.0121961530181866,
        -1.4338102950775626,
        1.4376666005354837,
        -0.942015082128921,
        2.820200103121547,
        -0.29964262261578534,
        -1.4028488585220784,
        -0.18076021386411306,
        0.27677813035397636,
        0.8687101858660967,
        -2.016568722223243,
        0.13963338793738905,
        -0.5453110366736121,
        1.3507138887826509,
        -0.6456097523906238,
        0.3084261278881853,
        -0.2111924265061769,
        2.8634120144611708,
        1.1189767312150027,
        -0.6778326058211002,
        -0.682452583605365,
        1.0373990902117427,
        1.4859001651649535,
        0.8534330124477826,
        0.553714181761235,
        0.26445318837664966,
        -1.616055760932409,
        -0.2935687507090207,
        -1.6914465245524286,
        -1.0009782453128906,
        -2.14864091244911,
        0.00759832844404025,
        2.860149909757047,
        -1.4251031253921695,
        -1.8148829540886453,
        -1.0619455128552573,
        1.3746524138467473,
        -0.5258545703146961,
        0.4373814911823602,
        0.6619135147758728,
        -0.7884311544204224,
        -0.6545013377376058,
        0.887005946739628,
        0.9502795544537791,
        -0.461620982828609,
        0.215181066483432,
        0.42140694028216646
      ],
      [
        -0.3786033657744685,
        0.11236234447077252,
        -0.26567765282335143,
        0.33502781573103363,
        1.730700184911727,
        0.19520301913768562,
        0.5644525564302566,
        2.1328800481221966,
        -0.33380597620583125,
        -0.1424205302261435,
        0.7259486752464156,
        -2.2074348693439294,
        -0.2492687827884593,
        -1.5987473934930243,
        0.6434882267523977,
        0.5644632023466982,
        0.358203550442145,
        0.14436386798354262,
        -0.09327238053897545,
        -0.4451720823452259,
        0.603389571779556,
        -1.1530675660663956,
        0.01636764672154493,
        0.03321046963726102,
        -1.502387567072245,
        -1.750533592993418,
        1.577044482175118,
        1.1242988831259448,
        0.4494411336966829,
        0.5537917105740228,
        0.6585466391018762,
        -0.6463930934038691,
        -0.732326617218259,
        -0.647869096091048,
        0.7341729132373848,
        0.5269703631005423,
        0.006870847152957807,
        -0.5967271891204726,
        -1.5425921020002697,
        -0.1220829030125447,
        0.5448797156052586,
        0.6030202659103875,
        0.4427824770643653,
        -0.472526442054513,
        0.32471279466634073,
        0.7003652230113581,
        -0.7791242734141114,
        0.7492298132615964,
        0.043311591377928206,
        0.3048253776115943,
        -1.4147159211876947,
        0.3128172986578477,
        -0.28250181461595275,
        0.3290081014342193,
        -0.24232519509776354,
        -0.32605592865689725,
        0.754316169984401,
        -0.6627367110910868,
        -0.49457137903450493,
        -0.3345605069807786,
        -1.0292563738980902,
        1.0432226418368429,
        0.13798832062225005,
        -1.0237482597945664
      ],
      [
        1.1958910782089285,
        1.1021413309527741,
        1.4757598329696062,
        -0.9775824940743542,
        -0.9702728529908847,
        -1.7684698561335357,
        -1.422375948146452,
        0.5031452820242165,
        0.8655383432275503,
        -1.489017185279406,
        1.231555290345593,
        0.6069611667684853,
        -0.8351568520462789,
        0.49408867525407346,
        0.0049607175267892736,
        0.9076694281185376,
        -0.4936839552947578,
        -1.7021178906926027,
        -0.6125692899027921,
        -0.3187319851002621,
        0.5237261294875961,
        -0.4621423166602482,
        1.014307733236443,
        -0.3505715587370982,
        -0.6628135865023227,
        -2.4225372805871963,
        0.08251686312383777,
        1.5941827228097003,
        0.41895333128912093,
        1.2939627783490966,
        -0.5361594140945978,
        0.1141953006399873,
        0.709905950107408,
        0.9246962001899897,
        1.6064359674094073,
        -1.3466257923490847,
        -0.055346255929560294,
        -0.8450063572770122,
        0.15450126051433,
        -0.7434718054865271,
        -0.577891986350171,
        -1.558575201959626,
        -0.01704323146656241,
        -0.44630573068843793,
        -1.555398050220431,
        -0.10050961726535104,
        -0.47424258617861326,
        0.42781080959082013,
        1.210273127836468,
        -1.6980785762283737,
        -0.005603902140981821,
        0.3562889517744352,
        -1.706020776382547,
        0.6727929552662107,
        0.12871551802483733,
        2.3200880117209426,
        0.17634658148734417,
        -0.7161112820555486,
        -0.4301980468797058,
        -0.6829640198960519,
        -1.2458441292968372,
        0.21429757078331663,
        -0.20097682672879147,
        0.34719796609638426
      ],
      [
        0.11356199512324801,
        -2.0284674348477743,
        0.19354402783316088,
        -1.7458069326701744,
        -0.6159781236549889,
        1.7621094151501289,
        0.8400486040973509,
        -1.5494750677633744,
        1.2821456126454664,
        -0.0050879825811463,
        0.8299562084762565,
        0.6431401128572672,
        -1.0189485341315703,
        0.45633855679186,
        0.4279749960947419,
        -0.038374424155223956,
        -0.4205224037088882,
        -0.15768231761507032,
        -0.1972784853223804,
        0.7383868293898821,
        -0.4205383026924217,
        1.1826070961359003,
        0.12895697478808835,
        -0.2964525879103708,
        1.4973262569046082,
        -1.1495577541062811,
        -1.109728297568561,
        1.554593978801162,
        0.7370785400463923,
        -0.7733095896458035,
        0.7866373218203874,
        0.7291600874682537,
        -0.3616028753416335,
        -0.38017677417335155,
        -1.6828491050250214,
        0.947587703890611,
        -0.18067217491131876,
        0.050878554539156816,
        -0.37092975044962234,
        0.1642744622605099,
        -0.39320058148686965,
        0.5236585268543869,
        0.6973630436932416,
        -2.36442935442924,
        0.3177892037331603,
        -0.11975345355272131,
        0.4079881870323601,
        0.11875159562206282,
        -2.2429698684423527,
        0.9001594254945429,
        -0.4739947623535636,
        -1.0017183427264091,
        -0.5168391143794856,
        -0.8681159877847172,
        1.4269337673216602,
        -0.33337703111163863,
        0.42151123100692706,
        0.020868268914200357,
        -0.9517772609701971,
        -1.2861620705446195,
        0.4010393739914373,
        -0.35530432595900097,
        0.28712066713291245,
        0.39169809327415683
      ]
    ],
    [
      -0.3634139567666197,
      -0.6321485857523826,
      0.34992393277221717,
      2.69909790785995,
      1.1354464523553491,
      -0.06232685849692963,
      0.9952133978735059,
      0.663092832909937,
      0.7721036068966373,
      1.3083446862517552,
      -0.616436905087356,
      -1.005970820783893,
      0.23851638084295843,
      1.0579501926384218,
      -1.273865107667358,
      -0.5580643192094716,
      1.5187083402617905,
      0.723294478609272,
      0.22176356050369025,
      -0.4041875404706108,
      0.3515084254971594,
      0.12054230981004364,
      -0.15923823575398577,
      -1.7681022671750415,
      -0.8707059179606094,
      2.3370691286502785,
      -0.44900825939106725,
      -1.4287633652095337,
      1.5589341909649759,
      0.003991145716519723,
      -0.014399000716705477,
      -0.2544992226002829,
      -0.3155032081785775,
      -2.441096423737993,
      -1.2425028487407195,
      0.41334342708251526,
      -0.8924863728522096,
      0.45342012528285414,
      2.104773379267173,
      -0.9436904159825176,
      2.0675955404638713,
      0.2710158779444843,
      -0.48608131480395045,
      -1.1422330085363874,
      -0.6958236459045137,
      -1.276869974281144,
      -0.5368343079009846,
      0.6243001596229374,
      -0.5787025760704474,
      2.078774023121102,
      2.2031296254387853,
      0.5443908885923497,
      0.0362187866238388,
      0.8544110182275902,
      -1.2886106453783512,
      0.8082264166600809,
      0.9197454731460234,
      2.335931857775062,
      -0.10530930386026825,
      -0.616811613927534,
      -1.1569052335451055,
      -1.1969621028364916,
      -1.2186968166691552,
      -1.7836952563968187
    ]
  ],
  "optimizer": "adam",
  "loss": "binary_crossentropy",
  "metrics": [
    "accuracy"
  ],
  "created_at": "2025-08-20T08:01:25.600919",
  "version": "1.0.0"
}