{
  "model_type": "tensorflow_sequential",
  "layers": [
    {
      "type": "dense",
      "units": 64,
      "activation": "relu",
      "input_shape": [
        5
      ]
    },
    {
      "type": "dropout",
      "rate": 0.2
    },
    {
      "type": "dense",
      "units": 32,
      "activation": "relu"
    },
    {
      "type": "dropout",
      "rate": 0.2
    },
    {
      "type": "dense",
      "units": 1,
      "activation": "sigmoid"
    }
  ],
  "weights": [
    [
      [
        -1.3739736170444528,
        -1.1284754006083704,
        -0.66432558257757,
        0.8354926167770926,
        0.7677562555687057,
        -0.9595941105905874,
        -0.48745394037227574,
        -0.14356547634537117,
        0.6192356205701741,
        -0.05465545655559078,
        -0.9334229101941884,
        -1.4420724715892248,
        -0.7997634841435757,
        1.2982740787405322,
        0.3303094753311377,
        -0.3784657200542734,
        2.020246937220286,
        1.209916603463624,
        -0.8730469091330099,
        -0.79507361236797,
        1.3974339229979855,
        0.6354708007737985,
        -0.3075925412354431,
        0.6839950138317539,
        -0.301236096177092,
        -0.48666250166598635,
        -0.5111275954862502,
        -1.1919836777768185,
        -1.132568142796781,
        0.19035519036354126,
        -0.20424611490873845,
        -1.6852228157969826,
        0.49032522690080554,
        1.0834681297804827,
        -1.485609943836233,
        -1.0840866885640166,
        0.9990842909984406,
        -0.6804934179307113,
        0.7461824653832969,
        -1.132261472361142,
        -0.17048336922760013,
        1.1303879560721593,
        -0.5530907012896279,
        1.307450298672972,
        1.3112743126897337,
        -2.0975495977281815,
        0.3563875090289965,
        -0.5507317843046555,
        -0.6258133263888849,
        0.5391646350163785,
        0.9736289837494206,
        0.5812854479892994,
        0.9888499953016848,
        -0.334256326525653,
        1.283720553638784,
        0.12684541995676513,
        0.7194237826920389,
        0.1991784160674769,
        -0.2438399783581271,
        1.4378082950820068,
        -0.4136881606947227,
        0.1396139666173998,
        1.577345428942065,
        -1.1880365114675258
      ],
      [
        -0.9453417946664555,
        -0.10864392846152233,
        2.315126426049734,
        0.04047474476266366,
        -0.5306058249006643,
        -0.35739358089331946,
        -0.09673349905800782,
        -0.3786486902806897,
        -1.3466351384434745,
        0.09089671492403513,
        -0.7279813127401141,
        -0.9141321382667306,
        0.9227274881046583,
        -0.17985965049833394,
        -0.19263015831009617,
        1.5669766911773753,
        -1.978645344473999,
        0.5513844673538468,
        -0.753344424552524,
        0.833823432720945,
        0.30616982533574055,
        -0.0032615425660471294,
        1.2592211432982052,
        -1.8618039941341995,
        1.0210103348409625,
        -0.5990532956249102,
        0.16992776981977728,
        -0.6597810503260522,
        0.11384635763502794,
        1.1986423470319623,
        -1.1249086380031479,
        0.5991326926673173,
        0.15778205965163375,
        -0.6264154847853792,
        0.39529761647754347,
        -0.7153692967990852,
        -0.5244795284227804,
        -0.4762455955836601,
        -1.1895222520793767,
        -0.9679173182029436,
        1.6786799975416198,
        -1.2922028863305155,
        1.1754542402036385,
        -1.543836224550134,
        -0.11467783194464232,
        -0.6016551603266271,
        0.21303626347968066,
        -0.32212000664822993,
        -0.14748428436888086,
        0.3756329983938748,
        -0.5548478480174142,
        -0.23660671090697685,
        1.5093850604849517,
        -2.157783515391121,
        0.2687097805120959,
        0.2499417128405016,
        -0.3662061564931941,
        -0.11122655898419206,
        1.394863775865784,
        -0.5049926245606825,
        -0.48634343144927683,
        0.8991996189129472,
        1.8413983416588084,
        1.1668424210654376
      ],
      [
        -1.397846920428228,
        -1.8285309146050315,
        0.8047749909654969,
        -0.995801816641963,
        -1.7545749313133228,
        1.528059604083655,
        -1.62490133337788,
        1.0910128913676589,
        -0.7074789801645611,
        0.04868874129921255,
        -1.1067314534277437,
        1.3858260161033407,
        1.6758958225543137,
        0.7518169578831614,
        2.0691784841272636,
        3.324722464799693,
        -0.9639494317217534,
        -0.41020744665151554,
        0.6148587513487329,
        1.6828317362597929,
        1.751927980861779,
        -0.17947270046238076,
        -1.392382264465271,
        0.6418625642148365,
        -0.39495978467255566,
        -0.30722593133153414,
        0.6194551434290736,
        -1.124389041759575,
        -0.3508345839554853,
        -0.034107005550018527,
        0.017587382166562384,
        1.6433165487647603,
        -0.26835100402261974,
        0.2584310083017519,
        -0.19237533444930363,
        1.850953036991584,
        -0.9708244015238997,
        0.9966262012236446,
        -0.3193700850214897,
        -1.1685023066246427,
        -0.8843837504532034,
        -1.743773354971884,
        -1.955764928866823,
        0.1311969474322856,
        -0.31478779147821107,
        -0.397533741962899,
        -0.06583608096581747,
        0.6753226722500856,
        -0.30961437550949944,
        -0.2982660232540057,
        0.1330421783600169,
        -1.2380394878177168,
        0.6615535780316311,
        -0.11873809422011113,
        -2.6575063138401545,
        1.0356158550614936,
        -1.0497149216372674,
        -1.3388299520801028,
        0.44430123573062236,
        -0.3870168195219129,
        -0.579840545547388,
        -0.258355316896458,
        1.7713774024738984,
        1.9010848040813006
      ],
      [
        0.5843006467221203,
        -0.6357996528522176,
        -0.07798773760907148,
        -0.07755251327392002,
        -0.48633065906055056,
        1.3038341409784886,
        1.3725747939184765,
        -0.8307534117216013,
        1.961922320741038,
        -0.7817353553206774,
        0.15247019893049235,
        -1.383497149637631,
        0.49527226575035527,
        -1.2936811465014504,
        0.5568440104620797,
        -0.9312971775883598,
        -1.3052872206368302,
        -1.550650556894802,
        1.303214439901406,
        0.3552379883026463,
        -0.8049549416967055,
        1.4395876559977845,
        0.4676672594441033,
        -1.264034898335422,
        -0.2243923005801229,
        0.8556383839042313,
        0.886348946261259,
        0.05889307359884519,
        2.3504652286339542,
        0.7888726270724042,
        0.043461167548057664,
        1.4327572772178563,
        0.4363348071186514,
        -0.6872726517230706,
        -0.2796191886615603,
        -1.5135689676089765,
        1.2288880872905492,
        0.3006542315881592,
        1.0662411126391915,
        1.0603860192938728,
        1.18474955024457,
        -1.5277330337061539,
        -0.4391632222651516,
        0.8839978002734414,
        0.48474746628213267,
        1.2803799578846893,
        0.1766206062315316,
        -1.1718920723783766,
        -1.4968382051088118,
        -0.5881128423336259,
        1.0454834367479964,
        -0.5138622251373622,
        0.9726728398394047,
        0.2359452343498786,
        0.753961250436179,
        -0.5297148639353672,
        1.3447408984326734,
        -0.39377556072494474,
        2.51380537276828,
        2.086988767144106,
        -0.9024200949513219,
        -0.9885997122433718,
        0.7859806239085204,
        1.3910876228003348
      ],
      [
        -0.676181170421458,
        -0.8233172256266993,
        -0.9325213478706468,
        -1.5511380786849458,
        -2.136583519081567,
        0.2509691034706154,
        1.6688236412083715,
        -0.5378323976346948,
        1.1449631304223693,
        -0.17088794032094135,
        1.600657876077252,
        0.8982925817854809,
        0.33776716244331173,
        0.2457433303862682,
        0.30283606621817605,
        -0.3854262545535929,
        -2.4854938280083965,
        0.20027021539596307,
        0.17419507553646488,
        0.9246813505192607,
        1.5227553482380907,
        -0.8100649919997951,
        2.4954704557175593,
        -0.1679993424893473,
        1.7429177646975256,
        -0.3877198337602553,
        0.7584417248273096,
        -0.9944684165171633,
        0.10454185684631741,
        -0.886116429249414,
        0.6695775744075885,
        0.6851760512145263,
        0.584326630124396,
        -0.5177773163448783,
        0.06076819655507434,
        -2.047051761793428,
        0.9125277552684676,
        -0.20493220511609245,
        0.5424069366508986,
        -0.2720082701886092,
        -0.7336466797480103,
        -0.6590621012777148,
        1.9161722834087218,
        0.9679272678673516,
        0.04047890004772974,
        -1.107992621596292,
        -0.11994281039556375,
        1.5297730921161776,
        -0.23333598671655598,
        0.2743235221941339,
        -1.203469081939206,
        -2.254653052653589,
        2.5253409345567306,
        -0.4360690389549377,
        -0.04291948524279904,
        -1.0713760365255507,
        2.0069112585666375,
        -1.6466721672050626,
        0.25184585395259446,
        0.0527029270924796,
        -1.4708390004449794,
        -0.4200474648801411,
        -0.8251294799773506,
        -0.8352298733676428
      ]
    ],
    [
      -0.17611648164936292,
      0.8369418652935167,
      -0.22433202134099803,
      -1.550050771665378,
      -0.6093686009803214,
      -0.2624283906874688,
      -0.9538524899348888,
      0.8379832451806293,
      -0.447593212655599,
      1.97960384274372,
      -0.8753213257234852,
      0.8376253336808648,
      0.14120782338349697,
      0.06820268028730944,
      -0.17634992968586408,
      1.2118922974952626,
      -0.4202935941532438,
      -0.2899414416010131,
      -1.4634592784435123,
      1.2381939634533938,
      -0.7432938299518099,
      1.7206417569911225,
      -0.9990826205393852,
      -0.19654382777184393,
      1.1110952750378076,
      -2.35690903901443,
      0.16308801488088664,
      0.35861040798215815,
      0.23868116129026556,
      -0.8633180290632444,
      0.16431681299584774,
      1.0548273469773548,
      -2.8776550835056325,
      0.8045838483841035,
      0.07464294718971469,
      -1.5347939663451744,
      0.5250816938355336,
      -0.652551983301534,
      0.37054791816258714,
      0.03444331525050762,
      -0.2448070543713441,
      -0.06519344081139039,
      -0.7319562653014352,
      0.2534102328820602,
      0.4269699819438363,
      0.48085282641037946,
      1.7566780151296304,
      0.4213864674277543,
      -0.7127772772362153,
      2.891813253314844,
      -1.3570129079160638,
      1.4384182865389767,
      1.2147312207719176,
      0.47880076916494624,
      -0.1525156340886172,
      -0.7821769425836392,
      0.7961986623800412,
      1.7328643688601044,
      1.1050739340024642,
      0.6398086922254327,
      0.6845491249186935,
      2.040000205366856,
      -0.5943819742231943,
      1.5307026562237942
    ]
  ],
  "optimizer": "adam",
  "loss": "binary_crossentropy",
  "metrics": [
    "accuracy"
  ],
  "created_at": "2025-08-20T08:01:26.423207",
  "version": "1.0.0"
}