{
  "model_type": "tensorflow_sequential",
  "layers": [
    {
      "type": "dense",
      "units": 64,
      "activation": "relu",
      "input_shape": [
        5
      ]
    },
    {
      "type": "dropout",
      "rate": 0.2
    },
    {
      "type": "dense",
      "units": 32,
      "activation": "relu"
    },
    {
      "type": "dropout",
      "rate": 0.2
    },
    {
      "type": "dense",
      "units": 1,
      "activation": "sigmoid"
    }
  ],
  "weights": [
    [
      [
        -0.9628115547565465,
        -0.4285279358238921,
        -0.008169161133691611,
        0.7235098818590577,
        -0.5467143007742241,
        0.436324310625226,
        -0.9998939532525911,
        -0.041609411232106465,
        -0.3155223713825895,
        -0.5180289238159314,
        1.1014880017003321,
        0.20380719224321525,
        0.3979997138232962,
        2.0208826352302443,
        0.2491138536819367,
        -1.8840443356266818,
        -1.138056079922947,
        -0.7287387580201649,
        -1.149336672051868,
        -0.7997273075590834,
        0.06136331512763509,
        -2.2117674572039068,
        0.8364425568059274,
        0.04247366156240115,
        -0.12394061560733272,
        0.41761496174594015,
        -0.9501588532745882,
        2.106945920093834,
        -1.8116390031998393,
        0.46938632702971045,
        -0.3413979838839383,
        0.12800252079076518,
        -0.060058566962579975,
        0.21287826366271972,
        0.7902869682531185,
        0.36413949229003956,
        -0.7792187494870696,
        0.3770410500837211,
        1.276001865379348,
        1.015636958199436,
        1.3596732445886484,
        -1.28596274906477,
        -1.6038978489831242,
        -0.8218337802259392,
        1.1239187342075474,
        -0.5459732051924349,
        -1.2387837697070299,
        -0.13158571670608069,
        -1.509874756159125,
        -0.00920820828747494,
        0.7723963241840616,
        -0.41269226127977576,
        -0.40505221348173365,
        -0.460808807358715,
        -1.6964282466385818,
        1.0530504500000482,
        -0.39251868243912436,
        -1.043077985561727,
        0.3069247155112487,
        1.3975965268330888,
        -0.162212691376187,
        -1.2647465438156515,
        0.03500137686030197,
        -0.9242029933834597
      ],
      [
        -0.45364730903002554,
        1.1202441120584183,
        -0.053218575543664805,
        0.017577206300831136,
        -0.13266767170395702,
        1.0916003135490002,
        1.5295113118320622,
        -0.8140031363818797,
        -0.16886645196581043,
        -1.4748673995129247,
        -0.23758055904111747,
        -2.9317144082756554,
        -0.14208491017152622,
        1.7552649463892638,
        -0.8474590484367988,
        1.125391526459992,
        -0.23898986469647687,
        -1.0336101503914834,
        0.983324871308212,
        0.23411371948271775,
        0.34882192417059543,
        1.1600050349823108,
        -1.2703715366548152,
        0.09484747584077312,
        -0.8852167910401063,
        0.9028373357305894,
        2.0020883171702923,
        -0.22282008947710516,
        -0.00044350134431934355,
        -2.8741948705079894,
        0.38169415205529983,
        0.10470218300557377,
        0.36359857185185335,
        -1.9969041221242407,
        -1.3763635795406093,
        -1.7470175296234833,
        -1.3430852710353907,
        1.0039647961360327,
        -0.5885954335817842,
        0.3583524015023655,
        -0.3969363826102996,
        0.018567036758229554,
        0.35653644666728473,
        -0.29040178654101684,
        0.19247722008096085,
        0.7014955763440204,
        -0.14839958467597245,
        -0.6958160833150647,
        2.4646600426046574,
        -0.23763039026194882,
        0.8595214513491617,
        -0.5444211503832663,
        1.4988629853226076,
        0.6243042017216283,
        0.022360190099995115,
        0.31410641304956094,
        -0.9646005294177461,
        0.44547917897848005,
        0.0367306559770138,
        0.5809954250147324,
        -0.02196778978511696,
        0.5034733753269445,
        0.7674034486209893,
        0.36783634206748317
      ],
      [
        -0.9679510089471853,
        0.9340724855350985,
        1.8184704858302378,
        -1.153037195917764,
        -1.1436228082567035,
        1.1971197119791515,
        0.5323338870276489,
        1.4887567326837805,
        -0.5136201662772971,
        -0.9771224734455217,
        -0.09700099162128616,
        -0.04375859532659323,
        0.24899413940466106,
        -1.3229774847900435,
        0.3955579315659182,
        0.41564756453504137,
        -0.38229999619456423,
        0.6610194595909742,
        -0.6095323112579912,
        1.3426668826599548,
        -1.4495524575595553,
        0.18673262633531051,
        -1.0022721732022237,
        -0.8320559188848704,
        -0.5443085429999915,
        -0.5296050462664775,
        0.026070075500630018,
        0.0623268372093944,
        -1.7477854386119573,
        1.3637221844515963,
        -0.16725207608333936,
        1.1288244509240442,
        -0.12721917056983265,
        0.2475554850115494,
        0.5018309885712919,
        0.08448265311250215,
        1.5947449950133088,
        1.1281114976843694,
        -0.2283317925972621,
        1.01629013881097,
        1.1473073543685348,
        0.060615228318415426,
        -0.1483641090979882,
        -0.06659796106413694,
        0.052895902995659064,
        -0.2048452949434442,
        -0.9821800893740849,
        0.8731208707313394,
        0.9058332408799633,
        -0.5013271368199198,
        2.1452412808646026,
        1.389249172769002,
        1.7945724549116395,
        0.920673080866587,
        -0.3478747023712693,
        0.07716093572813414,
        1.1237300397695815,
        1.3545857685812135,
        -0.6343192085431587,
        0.6754743831626255,
        1.5832750364006838,
        1.0002125047456147,
        0.42564377297190686,
        -1.3199701670791468
      ],
      [
        -0.4229801962178657,
        0.7617703130645904,
        2.1373496452580234,
        -1.0448923978537838,
        -0.39097286767633793,
        0.689043257116509,
        -0.44597967366299407,
        -0.4536748149293392,
        -1.8656705265331177,
        0.5892307670964152,
        0.1606649010632791,
        -1.1527833792660336,
        -1.912127523911135,
        0.7346291457657896,
        -0.19675720387591075,
        0.3731567499242534,
        -0.6316720518518735,
        -1.5563049168928147,
        -0.8358544362055159,
        0.20686713247581417,
        2.0823923934169613,
        -0.14349900962136372,
        0.05878083273740113,
        0.3407420438258769,
        0.6291751391514232,
        0.12850967182028689,
        1.8978343687171633,
        -1.154680781548351,
        0.7672140055198865,
        -0.8051792987010471,
        -0.2200318447086933,
        -1.5943101407298124,
        -0.3159647555822182,
        -1.1433266561532887,
        -0.5097759754149823,
        -0.10114484008286263,
        -0.7993926245802447,
        -0.07908988486318583,
        -1.1056481434611622,
        0.40176117587584326,
        -1.3109914628071684,
        -1.0432584609408508,
        0.048752886060812975,
        0.5956892755520861,
        -0.9725207665490696,
        0.09543797893892537,
        -0.11369029430865539,
        0.26852596103359455,
        -1.5495961710067032,
        -0.5972045875920904,
        1.258717886221687,
        0.16888090054699756,
        0.9697705213090777,
        -1.307429765236179,
        -0.44678015513562136,
        -0.2283231622848944,
        -1.1148305752995011,
        -0.33708790412772144,
        -0.877170218000331,
        0.6835452976323109,
        -0.6088439614220572,
        -0.10936085806381209,
        0.38714386188117894,
        -0.6436097547449289
      ],
      [
        -0.5107667583197714,
        -0.7165597065801146,
        0.4088499441935296,
        0.3085165325734206,
        1.062539879363542,
        0.9318643440285945,
        1.5451859053276897,
        0.44257891286810275,
        -0.46521726871376234,
        0.1126674785480909,
        -1.2218795813792687,
        0.6078389445988555,
        0.620307234156758,
        0.8707317232371959,
        0.363445957411892,
        -0.3609937801571804,
        -0.6710146440452869,
        -0.7987666006918689,
        1.3938137038630836,
        0.4029658571023096,
        -0.3890025769807524,
        1.7573449293026762,
        -2.3280460483064944,
        -0.1933031451408357,
        0.7278999837397861,
        -0.19026503941485973,
        1.3708661355720242,
        0.89740395627916,
        -0.8251532654158042,
        1.9447096698635105,
        -0.061719391823034646,
        -1.705434154061277,
        0.18227536185567378,
        2.74010486904672,
        -0.44267495998650275,
        -1.1530291472379033,
        0.7579943655638314,
        0.9165453079908261,
        -1.0924474619854367,
        0.9886394202492902,
        0.39078917418610726,
        -0.46945714156474605,
        -0.09308880788806183,
        -1.0746876027001744,
        0.029091425987795776,
        -0.43637221231721784,
        2.6000834641202384,
        -1.1918689106856395,
        0.7048585554656793,
        0.9106996084712181,
        0.5480391026441068,
        -0.2673915996810599,
        -0.18870180881571888,
        -1.0860340593690798,
        0.248858351335173,
        -0.6566990470550697,
        -0.1823404529757762,
        -0.12022062120322753,
        -1.047539441171245,
        -0.41967133823096936,
        -0.8088975866612059,
        -1.588934060586066,
        0.16768891119563017,
        -1.9576472269740859
      ]
    ],
    [
      1.1957554050165098,
      2.0784497717934256,
      1.2707340527253057,
      -0.9143466681491442,
      -0.2593303592288467,
      0.045293008207118186,
      0.9082588844759037,
      0.6537436442640506,
      0.3055140318679331,
      -1.8469078985598857,
      -2.139081359387332,
      -0.4528514518381719,
      -1.3357746956599454,
      0.9591762630394693,
      -0.483730896997966,
      0.520663607219768,
      1.4213429752571005,
      1.6528151129357882,
      0.7925188705859822,
      0.17951257604572365,
      0.19606855249066488,
      -1.1903938609052465,
      -0.2468448799461104,
      1.5289408995276836,
      2.0949160806668514,
      2.0069735428469,
      0.39629430275073585,
      0.5303628815317852,
      -0.22124756439248028,
      -0.23209445376323218,
      -0.5674988938608696,
      -0.4390336071490869,
      -0.6213337524560831,
      0.3011067600478494,
      -1.234118198557602,
      0.9412268493897584,
      -0.4363400898686743,
      0.412865893873939,
      -0.28250452242082,
      0.3720741279755211,
      0.428243766257568,
      -0.3563248370651808,
      -0.8615507472593398,
      0.6172400331653772,
      0.32773780549435566,
      0.35805569228246764,
      0.11856684312101,
      -0.1928042557794964,
      -0.321051352219552,
      0.16319810958775838,
      0.3245909291258802,
      1.7615919159980649,
      -1.5213718644948393,
      -0.5590948338182916,
      1.2989449541784956,
      0.3154991653163661,
      1.3591842051207266,
      -0.06499752609837095,
      0.4356933381861199,
      -0.023736946403772743,
      1.58170391055104,
      0.5516261189394982,
      2.840668984645204,
      0.6207421527448912
    ]
  ],
  "optimizer": "adam",
  "loss": "binary_crossentropy",
  "metrics": [
    "accuracy"
  ],
  "created_at": "2025-08-20T08:01:26.426324",
  "version": "1.0.0"
}